=== Run information ===

Scheme:       weka.classifiers.trees.J48 -C 0.25 -M 2
Relation:     Wednesday-14-02-2018_TrafficForML_CICFlowMeter-weka.filters.unsupervised.attribute.Remove-R3-weka.filters.unsupervised.attribute.RemoveUseless-M99.0-weka.filters.supervised.instance.StratifiedRemoveFolds-S0-N10-F1
Instances:    104858
Attributes:   69
              Dst Port
              Protocol
              Flow Duration
              Tot Fwd Pkts
              Tot Bwd Pkts
              TotLen Fwd Pkts
              TotLen Bwd Pkts
              Fwd Pkt Len Max
              Fwd Pkt Len Min
              Fwd Pkt Len Mean
              Fwd Pkt Len Std
              Bwd Pkt Len Max
              Bwd Pkt Len Min
              Bwd Pkt Len Mean
              Bwd Pkt Len Std
              Flow Byts/s
              Flow Pkts/s
              Flow IAT Mean
              Flow IAT Std
              Flow IAT Max
              Flow IAT Min
              Fwd IAT Tot
              Fwd IAT Mean
              Fwd IAT Std
              Fwd IAT Max
              Fwd IAT Min
              Bwd IAT Tot
              Bwd IAT Mean
              Bwd IAT Std
              Bwd IAT Max
              Bwd IAT Min
              Fwd PSH Flags
              Fwd Header Len
              Bwd Header Len
              Fwd Pkts/s
              Bwd Pkts/s
              Pkt Len Min
              Pkt Len Max
              Pkt Len Mean
              Pkt Len Std
              Pkt Len Var
              FIN Flag Cnt
              SYN Flag Cnt
              RST Flag Cnt
              PSH Flag Cnt
              ACK Flag Cnt
              URG Flag Cnt
              ECE Flag Cnt
              Down/Up Ratio
              Pkt Size Avg
              Fwd Seg Size Avg
              Bwd Seg Size Avg
              Subflow Fwd Pkts
              Subflow Fwd Byts
              Subflow Bwd Pkts
              Subflow Bwd Byts
              Init Fwd Win Byts
              Init Bwd Win Byts
              Fwd Act Data Pkts
              Fwd Seg Size Min
              Active Mean
              Active Std
              Active Max
              Active Min
              Idle Mean
              Idle Std
              Idle Max
              Idle Min
              Label
Test mode:    user supplied test set:  size unknown (reading incrementally)

=== Classifier model (full training set) ===

J48 pruned tree
------------------

Fwd Seg Size Min <= 28: Benign (66484.0)
Fwd Seg Size Min > 28
|   Dst Port <= 21: FTP-BruteForce (19336.0)
|   Dst Port > 21
|   |   Dst Port <= 22
|   |   |   Fwd Seg Size Min <= 36: SSH-Bruteforce (18761.0/2.0)
|   |   |   Fwd Seg Size Min > 36: Benign (26.0)
|   |   Dst Port > 22: Benign (251.0)

Number of Leaves  : 	5

Size of the tree : 	9


Time taken to build model: 4.2 seconds

=== Evaluation on test set ===

Time taken to test model on supplied test set: 10.54 seconds

=== Summary ===

Correctly Classified Instances     1048516               99.9944 %
Incorrectly Classified Instances        59                0.0056 %
Kappa statistic                          0.9999
Mean absolute error                      0.0001
Root mean squared error                  0.0061
Relative absolute error                  0.0143 %
Root relative squared error              1.4591 %
Total Number of Instances          1048575     

=== Detailed Accuracy By Class ===

                 TP Rate  FP Rate  Precision  Recall   F-Measure  MCC      ROC Area  PRC Area  Class
                 1,000    0,000    1,000      1,000    1,000      1,000    1,000     1,000     Benign
                 1,000    0,000    1,000      1,000    1,000      1,000    1,000     1,000     FTP-BruteForce
                 1,000    0,000    1,000      1,000    1,000      1,000    1,000     1,000     SSH-Bruteforce
Weighted Avg.    1,000    0,000    1,000      1,000    1,000      1,000    1,000     1,000     

=== Confusion Matrix ===

      a      b      c   <-- classified as
 667597     13     16 |      a = Benign
      0 193360      0 |      b = FTP-BruteForce
      0     30 187559 |      c = SSH-Bruteforce

